solver_type L1R_LR
nr_class 2
label 1 2
nr_feature 646
bias 0.000000000000000
w
0.003965914947802694 
0.04614654585522433 
0.2208094326506769 
-0.1859025718891785 
-0.7584954324461713 
0.6470963410209107 
-0.03437686870115428 
-1.053806501713055 
0.002354151895392235 
-1.446640374781514 
-1.061630380263766 
-0.4811789558354318 
-0.3726294321161098 
0 
1.304067888969212 
-0.09390919185588109 
0 
0 
0 
0 
0 
0.03049982765354554 
0 
0 
-0.02162560068872006 
0 
0 
0.5679408352908890 
0 
1.267994061683784 
-0.06146723303345384 
0 
0 
1.293311990793499 
0 
0 
1.256362622791578 
3.025697019940961 
-0.003889459303873398 
-0.002881618122656919 
0.1731662345104071 
-1.243770395096151 
-0.8391113279072362 
0 
0 
-0.9262556365836414 
0.8218770347633980 
0 
-0.6998555195691261 
-0.05902282483000915 
0 
0 
0 
-0.09919543955362299 
-0.1071621721362784 
0.1666697416693476 
0.3781302506218175 
0.01686380816678515 
0.07995656182752592 
0.001435395569135885 
0 
0.9862530320190344 
0 
0 
0.02279161769068128 
0.3072583422369787 
-0.06934481136021228 
-0.2186592546779012 
-0.2001511738504051 
0.1677946958496410 
0 
-0.8309881813592567 
0.4579796850055771 
0.8220979672010078 
0.1757523436438127 
1.217604354960785 
0 
0.5434545573494711 
0 
-2.233664852723585 
0.2278273954529510 
0.7118130183014930 
-0.7100498720992617 
-0.1373325951948023 
0 
0.7722857674271908 
0 
-1.112396686986126 
-0.6386104467395590 
-0.05352881977271767 
0 
-0.2455629800949478 
0 
0 
0 
0.3552215668467358 
0.06970979447407341 
0 
0 
-0.1993583396643460 
0.1633475536969228 
0 
0.5374562490623574 
-0.6152635496429362 
0 
0 
-1.128193261180208 
0 
-1.951503906836607 
-0.4013152433921219 
-0.5566309648319071 
0 
0 
0 
0.004445031328969829 
-0.2670268785070949 
0.1090702735399954 
0.004991963587317581 
0 
0.08971881480329302 
0 
0 
-0.06499492753355311 
0 
0 
-0.05093462197406358 
0 
0 
-0.5672614378636615 
0.1569723697955481 
0 
0 
0 
0.3121023538698636 
0 
0 
0 
-0.8502810216126494 
-0.1039792581490323 
-0.2314777954625961 
0 
0 
0 
0 
-0.8142061210630627 
0 
0 
0 
0 
0 
0 
0 
0 
0 
0 
0 
0 
0 
0 
-0.1858225933673408 
0 
0.08737811807774522 
-0.1948116086450683 
-0.3218613205055845 
0 
0 
0.01669052937363294 
0.1589798984959324 
0.1263045996736431 
0.2252633942642477 
0 
0 
0 
0 
0 
0 
0 
0 
0 
0 
0 
0 
0 
0 
0 
0.04258984619595041 
0 
0 
0 
0 
-0.004316713096501157 
0 
0 
0 
0.3966903614773030 
0.004917180641739072 
0 
0 
0 
0 
0 
0 
0 
0 
-0.2576498353400577 
0 
0 
1.436172080810370 
0.3689873513934480 
0.04142725922609465 
-0.1458542651455753 
0 
0 
0 
0 
1.341031376868462 
0 
0 
0 
0 
0 
0 
0 
0 
0 
0 
0 
0 
0 
0 
0.1624705910090611 
0 
0 
0 
0 
-0.8113637355629063 
-0.1499872408055064 
0 
0 
0 
0.1415155715188118 
0 
0 
0 
0 
0 
0 
0 
0 
0 
0 
0 
0 
0 
-0.01648222587723800 
0 
0 
0 
0 
-0.09503781699182395 
-0.03955559420785026 
0 
0 
0 
0 
0 
0 
0 
0 
-0.7282242516851554 
0 
0 
-0.2162537415558332 
-0.1887180452434115 
0 
0 
0 
0 
0.1027064273467272 
0 
-0.1193553530410741 
0.2385546267233428 
0.01394936763702392 
0 
0.5973948322811360 
0 
0 
0 
0 
0 
0.9454626819939741 
0 
-2.004703680397742 
0 
0 
0 
0.1525319354888974 
-1.031553258245347 
-0.1227215983696012 
-0.03704094131803754 
-0.5158650268792707 
0.5327718301852784 
0 
0 
0 
0.3823711407300786 
0 
0 
0 
0 
0 
0 
0.06640011443276353 
0 
0 
0 
0 
0 
0 
0 
0 
0 
0 
0 
0 
0.1250768692050758 
0 
0 
0 
0 
0 
0 
0 
0 
0 
0 
-1.289484949671224 
0 
0 
0 
1.191661351425509 
0 
0 
0 
0 
0 
0 
1.767656077301393 
0 
0 
0.02804211082207432 
0.007149887348783987 
0 
0 
0 
0 
0 
0.009467791319475772 
0 
0 
0 
0 
0 
0 
0 
0.07225562727081407 
0 
0 
0 
0 
0.4829084384004798 
0 
0 
0.03976734351748708 
0 
0 
0 
0 
0 
0 
0 
0 
0 
0 
0 
0 
0 
0.3666223283608853 
0.2031639033335446 
0.3433065619575434 
0.3052891259874895 
0 
0 
0 
0 
0.1821089398168237 
0 
0 
0 
0 
0 
0 
0.5361031086926697 
-0.2102658102751104 
0 
0.8330659288292754 
0.09584809053569884 
0 
0 
0 
0 
0 
0 
-0.4735548612540507 
0 
-0.1138910271303301 
-0.05181746859787265 
0 
0 
-0.6775037740329970 
0 
0 
0 
0 
0 
0 
0 
0 
-0.09557731316924112 
0.2917130772093077 
0 
0 
-0.2259575383789544 
-0.6354897013140070 
0.6111052086202825 
0 
0 
-0.07055720106972746 
0.6588503175851933 
0.02739916954496508 
0 
0 
0 
0 
0 
0 
0 
0 
0 
0 
0 
0 
0 
0 
-0.4561451839964698 
-1.165918959099450 
-0.1703621173767280 
-0.6822849435435093 
-0.1630864283979412 
-0.07900037555743603 
0 
0 
0.5994751891579695 
-0.5088787001286649 
0 
0 
0 
0 
0 
0 
0 
-0.2563322319248297 
0 
0.7647096942825465 
0 
0 
0 
0 
0 
-1.517076229920434 
-0.1070893263652159 
0 
0 
0 
0.5198663527681535 
0.003354987259287277 
0 
-0.9313168470251774 
0 
0 
0 
0.2844808473262311 
0.1753914321779882 
0 
0 
0 
0 
0 
0 
0 
0 
-0.2166589250994513 
-0.5704747933114283 
0 
0 
0 
1.270077198052566 
0 
0 
0.3194817385412542 
0.1387526632001149 
0 
0 
0 
0 
-0.2125198674749783 
0 
-0.5258056528950101 
0 
0 
0 
0 
0 
0 
0 
0 
0 
0 
0 
0 
0 
0 
0 
0 
0 
0 
-0.2491790758991236 
-0.02220211988845699 
-0.4128569364465822 
-1.461585112610455 
0 
0 
0 
0 
0 
0.07619638620658561 
0 
0 
0 
0 
0 
0 
0 
0 
0 
0 
0 
0 
0 
0 
0 
0 
0 
0 
0 
0 
0 
0 
-0.5370259649356129 
0 
0 
0 
0 
0 
0.7253305607913363 
0 
0 
0.5218216595988069 
0 
0 
0 
0 
0 
0 
0 
0 
-0.05994986442989658 
-0.6204816761684788 
0 
0 
0 
0 
-0.9813921790860106 
-0.5120738993693011 
0 
0 
0 
0 
-1.323674487130128 
-0.1668658420672042 
0 
0 
0 
0 
0 
-0.5573440102226430 
0 
0 
-0.3682704859149674 
-0.2147328184680939 
0 
0 
-0.02794930146094050 
-0.6690991756885907 
0 
0 
0 
0.2350529772339977 
0.9405120515146130 
0 
0 
0 
0 
0 
0 
0 
0 
-0.4450901264848611 
-0.2745957027839824 
0.03560971658217772 
0.02037693992833883 
0 
0 
0 
-1.874792130072101 
0 
0 
0 
0 
0 
0 
0 
0 
0 
0 
0 
0 
