solver_type L1R_LR
nr_class 2
label 1 2
nr_feature 314
bias 0.000000000000000
w
-3.521839789440279 
-0.3498162336471491 
0.07077038463867118 
0 
0.1307745428785389 
0 
0 
0 
0.04900501533314916 
0.3426935769021356 
0.2373387209479392 
0 
0 
0 
0.2227671613211554 
0.2803993468737048 
0 
0 
0 
0 
-1.574516768327232 
1.353295810251298 
0.2616714778453804 
0 
0 
0 
-0.002799630439390598 
0 
0 
0 
-0.2437780363844412 
0 
0 
0 
-0.4922970080802936 
0 
-1.216103896747692 
0 
0 
-0.1441285958011100 
-0.1742510935622008 
0 
-0.4066164895881888 
0.01843419431216073 
0 
0 
0.4949668472899697 
0.1471639109856416 
0.3435886345642343 
0 
0.1568613302698389 
-0.05835532586493974 
-1.147040474356164 
0.2282436919838270 
-0.3972071390271954 
0 
1.045649664990217 
-0.3246749745211105 
0.4029941413562214 
0 
-0.05600254433360038 
-0.1894195715991141 
0 
-0.08003686367836461 
0.08049785515314305 
-0.2013664809184689 
-0.2095630401193993 
0 
-1.478878206853852 
-0.003317862161414621 
0 
0.5371718364852185 
0 
0 
0 
0 
0 
0 
0 
0 
0 
0 
-0.03769084674998777 
-0.2332678066912611 
-0.05228135988037592 
0.2847713112722708 
0.3559738384941052 
-1.820645862512732 
0 
0 
0 
0 
1.372462222106438 
0 
0 
-0.2263930546488070 
0 
0 
-0.4842511962841687 
-0.6264871480084822 
0 
0 
0 
0 
0.2247636864829986 
0 
0 
0.5091541352878979 
0 
0 
0 
0 
-0.5392589435347830 
0.07075382062323629 
0 
0 
-0.6441880486183112 
0 
0 
0 
-0.3693443629374104 
-0.2079316310676765 
0 
0 
0 
-0.1168193526399871 
0 
0 
0 
0 
0 
0.4682748975367039 
0 
0 
0 
0 
0 
0 
0 
0 
-0.4596147808839778 
-0.2076536433469352 
-0.6750639696834955 
0 
0 
0 
-1.019182525307298 
0.2585323935440207 
0 
0 
-0.7114676283628961 
-0.1847071492213630 
0 
-0.2048216623160482 
0 
0 
0 
-0.005449328396497255 
-0.2636728714507475 
-0.006780802091105645 
0 
-1.058100249864481 
0 
0 
0 
-0.8263678814556458 
0.1990118472025411 
0 
0.1617236479222860 
0 
-0.8439785414193641 
0 
-0.9404371276302381 
0 
0 
0 
0 
0 
-0.1765830503659362 
-0.07894589243574647 
0 
0 
-1.483841915045796 
0 
0 
0 
0 
0 
-1.595895701629633 
0 
0 
0 
0 
0 
0 
0 
0 
0 
0 
0 
-1.293731255778555 
0 
-0.7821524897278050 
0 
-0.3619878308595206 
0 
0 
-0.2767926332239727 
0 
0 
0 
0 
0 
-1.275451567607520 
0 
0 
0 
0 
0 
0 
0 
0 
0 
0 
0 
0 
0 
0 
0 
0 
0 
0 
0 
0 
0 
0 
-1.388828946148926 
0 
0 
0 
0 
0 
0 
0 
0 
0 
0 
0 
0 
0 
0 
0 
0 
0 
0 
0 
0 
0 
0 
0 
0.6693668024661669 
0 
0 
0 
-1.592541139705092 
0 
0 
0 
0 
0 
0 
0 
0 
0 
0 
0 
0 
0 
0 
0 
0 
0 
0 
0 
0 
0 
0 
0 
0 
0 
0 
0 
0 
0 
0 
0 
0 
0 
0 
0 
0 
0 
0 
0 
0 
0 
0 
0 
0 
0 
0 
0 
0 
0 
0 
