solver_type L1R_LR
nr_class 2
label 1 2
nr_feature 1419
bias 0.000000000000000
w
-2.189988027833452 
0.007602384032473557 
0 
0.001591836045685631 
0 
-0.001145742150124798 
0 
-0.0009989500448725750 
0.03673078560290335 
0.0009064748736519600 
0.3802366743761146 
0.003073689806450028 
-0.9214177320794708 
-0.004059525327396597 
-0.9865119120296196 
-0.001503831493848146 
0.2768775485201967 
-0.002218409669566120 
0.4258217335490362 
0.0005508633390833021 
0 
-0.003047221465128794 
1.904360834942217 
0.001136354505517751 
0 
0.003840244353550723 
0 
-0.006751867387543960 
0 
0.002959400157466482 
1.242815960273984 
0.003798501545350622 
-1.871925651598258 
-0.004869139129334241 
-0.5998145319036063 
-0.009401209240960686 
0 
-0.002912393424010128 
-0.9563458312319177 
-0.04423769292157835 
-0.7668087781757684 
-6.745821907095309e-05 
1.124677906728526 
0.002150494199783218 
1.402911572834201 
-0.002452582705114175 
0 
-0.006283461989663622 
-0.9216817792213573 
-0.003948155760739733 
0 
-0.003387503617821596 
0 
0.01013696450254245 
0 
-0.02568322384857847 
0 
0 
0 
0.01377733767273199 
-1.442261880731871 
0.003333664319119029 
0 
0.04619146303373375 
0 
0.006112748532635390 
0 
-0.003406919988835466 
0 
0.01809382426530388 
0 
-0.07839914540951980 
-0.07590074488997416 
0.0005999824780887496 
0 
-0.01266843480277035 
1.100993407245871 
-0.009387614901530823 
0 
0.0005575108372580548 
0 
0.03650634926912667 
-0.7604101174541570 
-0.001593705847067421 
0 
0.06377332697363504 
0.3140105397156642 
0.007762012183085089 
-1.659914138366678 
0.001225623851208977 
0 
0 
0 
0.02836756907140878 
0 
-0.02521140501463590 
0 
-0.003299734173079589 
0 
0.002248139758352820 
0 
-0.006974682980306527 
0 
0.01650575937521297 
0.9214731960262491 
0.004786258085850230 
0 
0.002494215146919940 
0 
-0.001064317128461088 
0 
-0.003814059369553788 
-0.03602263397250366 
-0.0009448798091732346 
0 
-0.003915211966979514 
0 
-0.02059313165331101 
0 
0.003525412931829963 
0 
0.005160538093530282 
-0.3532902576455378 
0.01322851264941983 
0 
-0.02675181948876054 
0 
0.05129830310980031 
0 
0.002774025338408993 
0 
-0.008655082139058735 
0 
0.002947218114528849 
0 
-0.008147255871733775 
0 
0.02155661959783387 
0 
-0.002998298428897817 
0 
-0.01078482619202256 
0.4064451458966486 
0.02516422111282015 
0 
-0.0009684026013966564 
0.8881355196520236 
0.002197334377019525 
0.4801660355679268 
-0.001121436919651734 
0 
-0.01509040766571530 
0 
0.008804892376641780 
0 
0.006633207915290176 
0 
0.01007051448244328 
0 
0.005273050321434282 
0 
-0.02072103306983664 
0 
-0.006630391785125118 
0 
0.04459018563843291 
0.2960528682004399 
-0.001742155923269451 
0 
0.02985793864695337 
0 
-0.003535444337324434 
0 
-0.04185160641783901 
0 
0.003446399931253783 
0 
0.03949251164060292 
0 
0.04135635239160163 
0 
-0.06882478613415074 
0 
0 
0 
-0.005294702325232238 
0 
0.01046376656471926 
0 
0.002048899263309319 
0 
-0.01223846379048724 
0 
-0.005030693782643805 
0 
0 
0 
-0.02020433232956235 
0 
0.01918093419280026 
0 
0.03843139134793991 
0 
-0.03403855736981236 
0 
0.04231221108608273 
0 
-0.06670457094682661 
0 
0.02323130274019281 
0 
0.02750673251596694 
0 
0.006751017393237629 
0 
0.007868630889948110 
0 
0.01685633024001717 
0 
-0.01939457788411779 
0 
0.0006255565029496216 
0 
0.1775894122737556 
0 
0.05523973662671308 
0 
-0.04331616657834585 
0 
0.07734768286000447 
0 
-0.01926181801683322 
0 
0.02792059433229907 
0 
0 
0 
-0.02596241977715817 
0 
-0.003393336851883344 
0 
0.05570263650222216 
0 
0.01905190709908891 
0 
-0.009598666287425811 
0 
0.03294984882695221 
0 
0.003095888759972947 
0 
-0.003827157872786762 
0 
0.01035646149964506 
0 
-0.02359406482697312 
0 
0.02496182816024580 
0 
0.002978892354969656 
0 
0.03378280966818386 
0 
-0.004117326376980567 
0 
0.04555642366957821 
0 
-0.04936649429072831 
0 
0.03090483593470939 
0 
0.0007195798650982949 
-1.275000563937887 
0.0007562897458726897 
0 
0.01066593813044971 
0 
0.005171170716671216 
0 
0.005706203907541346 
0 
0.06614508878319461 
0 
0 
0 
0.001379075550015070 
0 
0.02945949184622186 
0 
0.03140501501934426 
0 
-0.001227198781453357 
0 
0.01391347553100948 
0 
-0.01541806735926288 
0 
0.0009953574765396188 
0 
0.007800381591862454 
0 
0.02737522215095487 
0 
-0.008919972175562844 
0 
-0.02612725270302212 
0 
0.009229588877153836 
0 
-0.001698342592289624 
0 
0.003733740548313913 
0 
0.03319458907907256 
0 
-0.005984485473555648 
0 
0.002319261514896338 
0 
0.008567782947907795 
0 
0.006854662671217511 
0 
-0.002090894421906120 
0 
0.005423298942607738 
0 
0 
0 
-0.03674408953907923 
0 
0.05287709302328301 
0.1344402946870560 
0.01721072818863310 
0 
-0.004499294579437708 
0 
0.02648703443191258 
0 
-0.03458993623688478 
0 
0.009260849375402870 
0 
-0.008352451251098530 
0 
-0.02830996628352655 
0 
0.03517313125834031 
0.4685176049991832 
-0.03802763863477433 
0 
0.01324445834177462 
0 
0.1553093122251852 
0 
0.01421206079705415 
0 
0.1001133227680832 
0 
0.01403453016117962 
0 
0.1047366472129765 
0 
0.03301072479754982 
0 
-0.009149539058842514 
0 
0.01712178767966689 
0 
0.06820088459982564 
0 
-0.0001419456232507569 
0 
0.08544819506368136 
0 
-0.06590219186597714 
0 
0.04385483497265101 
0 
0.06846546648720565 
0 
-0.004477622474416653 
0 
0.005225296453477045 
0 
0 
0 
0.01037561344739921 
0 
0.1357194201492137 
0 
0.005619562312793066 
0 
0.03751532225401504 
0 
0.04288877502090992 
0 
-0.1687994472103078 
0 
0.1439734750914549 
0 
-0.1105804494093308 
0 
0 
0 
-0.01923790742273599 
0 
0.008040465296789184 
0 
0.004214861952958789 
0 
0.002817520355261326 
0 
0 
0 
0.001096026401391126 
0 
0.03752920719607737 
0 
0.01003473189502392 
0 
-0.006260316756299199 
0 
0.003277994089269046 
0 
0.01444397479939464 
0 
0.006370743792488729 
0 
0 
0 
0.07211165253549758 
0 
0.05816381954010155 
0 
-0.2945542016820511 
0 
0 
0 
0.02977514968471508 
0 
0.008228896730324720 
0 
-0.01314313265338696 
0 
0.04492200565262427 
0 
0.08817950409869973 
0 
0.008861103656543922 
0 
-0.03644123826703237 
0 
0.01788195570708548 
0 
-0.03440203874502087 
0 
0.01875921935178264 
0 
-0.04057209207463765 
0 
0.004111010911869308 
0 
0.008346867779894882 
0 
-0.02189162531155021 
0 
0.03244829823014442 
0 
0.06237625128534133 
0 
0 
0 
0.01447097477828308 
0 
-0.1160835174562218 
0 
0 
0 
0 
0 
0 
0 
0.03051240671034121 
0 
-0.02654257846663856 
0 
0.1681851672168660 
0 
-0.08173214089001103 
0 
-0.005640189236597966 
0 
0.003495029771157519 
0 
0.01418862223961138 
0 
-0.007726995941947735 
0 
0.01874791673883873 
0 
-0.008450406488910166 
0 
0.05855652760227667 
0 
0.02824186172182733 
0 
0.01807802164335556 
0 
-0.05093167067625719 
0 
0 
0 
0.02110081305403020 
0 
-0.04901418363734904 
0 
-0.05176977530625649 
0 
0.2496496496269925 
0 
-0.02248237108465263 
0 
0.01068792381859939 
0 
-0.03072943884890321 
0 
-0.01734762042216592 
0 
0.005835967353811634 
0 
0.02629164390411821 
0 
0.008286683358476245 
0 
-0.001947117115708975 
0 
-0.009487864676000527 
0 
0 
0 
0.09959276646843274 
0 
0.01631804466679861 
0 
0 
0 
0.1068984307639892 
0 
0.2254492717167270 
0 
0 
0 
-0.2773681409827167 
0 
0 
0 
0.1168266929540408 
0 
-0.2843411488332642 
0 
0.07223147369476002 
0 
0.03323747500900521 
0 
0.07639181674550748 
0 
0.09102446679486059 
0 
0 
0 
0.01101256156620056 
0 
0.05655157134902946 
0 
0.03419258539267529 
0 
0.2310162600136675 
0 
-0.06691448510559105 
0 
0.3209155328895638 
0 
0.03136989789183740 
0 
0.06480857151380060 
0 
-0.001107750535805141 
0 
-0.07045055163258973 
0 
-0.1705616926104723 
0 
-0.01523043217778192 
0 
-0.01280838859969515 
0 
-0.005786814694720492 
0 
0.01340967134001347 
0 
-0.002443027917637108 
0 
0.02114576745412983 
0 
-0.4586828097127208 
0 
0.01150841230787938 
0 
0.02192166273724397 
0 
0.008023480201688683 
0 
0.06702819782958669 
0 
-0.09057335418335803 
0 
0.2366673540707127 
0 
0 
0 
0 
0 
0 
0 
-0.009323983286150557 
0 
0 
0 
0 
0 
0 
0 
0 
0 
0.1104724659127051 
0 
0 
0 
-0.1713570620251282 
0 
0.09759120576064516 
0 
0.01397686072645718 
0 
-0.08650710121643380 
0 
0 
0 
0.05524351456289758 
0 
-0.03412456417026172 
0 
0.02135063248318928 
0 
0.02428929265800262 
0 
0.004009759298188266 
0 
-0.005853644687309423 
0 
0.01424752511263150 
0 
-0.01712404438266706 
0 
3.871184655684820e-05 
0 
-0.01131031322872104 
0 
0.01545839585984708 
0 
0.001846632349268984 
0 
0.07400731465488622 
0 
-0.01463903065262852 
0 
-0.05295862562829440 
0 
0.02549444838129831 
0 
0.03860543988233777 
0 
0.06393611959587488 
0 
-0.1043138298148644 
0 
-0.005878422994182228 
0 
0.0006530597854244154 
0 
0.01557829220880984 
0 
0.04770461208609188 
0 
0.001115716391211446 
0 
0 
0 
-0.009507360062489107 
0 
-0.005793447089461791 
0 
0 
0 
0.005190111138147359 
0 
0.07072905907471510 
0 
0 
0 
0.01100054343360009 
0 
0.005005328768052674 
0 
0 
0 
0 
0 
0 
0 
0.05875713290757054 
0 
-0.0005323527967903068 
0 
0.02551308859899237 
0 
0.02140841040834038 
0 
-0.07155338324058567 
0 
0.05175775399009334 
0 
0 
0 
-0.06696915928972744 
0 
0 
0 
0.04306704687718914 
0 
0.02750548306259324 
0 
-0.01511276980712334 
0 
0.01002137055888079 
0 
0.04446147520457690 
0 
-0.009280408388209753 
0 
0.01544419903808519 
0 
0.01064758057847705 
0.3180278329085953 
-0.002875514580032111 
0 
0.02859924011707979 
0 
0.05248996138731882 
0 
0 
0 
0.009865102601721782 
0 
-0.008668306542149635 
0 
-0.01912975293594853 
0 
-0.3138845145285579 
0 
0.009023724936240249 
0 
0.007954238692928450 
0 
0.06065415517600846 
0 
-0.01033816219861417 
0 
-0.01690829463206929 
0 
-0.04889399040187474 
0 
0.05810344052074741 
0 
0.01934339289388615 
0 
0.01536697837988260 
0 
-0.01453573716909807 
0 
-0.02856660379435746 
0 
0.04728190890396269 
0 
0.05250849143909572 
0 
0.03066080284498151 
0 
0.04114790037212217 
0 
0 
0 
-0.06576240045010752 
0 
-0.03983257665051827 
0 
0 
0 
-0.1876903778086900 
0 
0.05621224295192658 
0 
-0.3678716338701176 
0 
-0.05779644790106719 
0 
0 
0 
0.09141605843351387 
0 
0.01198845288418048 
0 
-0.1330325497630092 
0 
0 
0 
-0.02339944319620442 
0 
0 
0 
0 
0 
0 
0 
0 
0 
0.04830300771124285 
0 
-0.02278440938956467 
0 
-0.03224935050396414 
0 
0.1554776625410045 
0 
0 
0 
0 
0 
0 
0 
-0.001512540431228325 
0 
0 
0 
0 
0 
-0.1130793366426377 
0 
0.1828263098948024 
0 
0.1045356891604341 
0 
0 
0 
-0.06145191704484541 
0 
0 
0 
0.1833572276436972 
0 
-0.04548243358332096 
0 
-0.08189720842282347 
0 
0 
0 
0 
0 
0 
0 
0.02644292454049665 
0 
0 
0 
0.03692881862603188 
0 
0 
0 
-0.03674720944369164 
0 
0.03989212723411442 
0 
-0.0001575087672803122 
0 
-0.002003919442204036 
0 
-0.05427969539319549 
0 
-0.1503594171128315 
0 
0 
0 
0.1192346180734967 
0 
0.1008136016682672 
0 
0 
0 
0.02031454881910180 
0 
-0.003759046988148463 
0 
-0.01999385765427950 
0 
-0.01289328773372490 
0 
0.09032974058042621 
0 
-0.06301109006095136 
0 
-0.1033987705601699 
0 
-0.06349763853920953 
0 
0 
0 
0 
0 
0 
0 
0 
0 
0 
0 
0 
0 
0 
0 
0.08354599729266950 
0 
0 
0 
-0.05234761016188269 
0 
-0.005429588927995224 
0 
0.004641070292606128 
0 
-0.2295334518580571 
0 
-0.01862764003854796 
0 
0.03276015989344351 
0 
0 
0 
0.004912272655783008 
0 
0.007113748640239627 
0 
-0.01692501970117090 
0 
0.01875089479217726 
0 
0.01908884538793142 
0 
0.01961824593382560 
0 
0.04131494282886903 
0 
-0.04292959170022295 
0 
-0.005210232203971088 
0 
-0.08323139703651972 
0 
0.008713978777938666 
0 
0.01560442150106058 
0 
0.1358203605711967 
0 
0 
0 
0.07257262117821792 
0 
-0.02523813089417095 
0 
0.05367129079838980 
0 
-0.01483774211318489 
0 
-0.004913756848081433 
0 
0.01273107157902375 
0 
-0.08097600608316378 
0 
-0.05197565230332489 
0 
0 
0 
0.1381601875510779 
0 
-0.07706523766446595 
0 
-0.08405425580349647 
0 
-0.0006076840075086552 
0 
-0.1639506120725966 
0 
0 
0 
0 
0 
0 
0 
0.05624087039361190 
0 
-0.05157980905416087 
0 
-0.0008671713945730122 
0 
-0.08833427193040662 
0 
-0.002073786714489174 
0 
0 
0 
0.04470831964938617 
0 
0 
0 
-9.603269429092542e-05 
0 
0.1353321788511387 
0 
-0.4475462846649465 
0 
0 
0 
-0.4313685797416824 
0 
0 
0 
0 
0 
0.07531298776059861 
0 
0.07433856295555111 
0 
0 
0 
-0.1961370662327453 
0 
0 
0 
-0.1006425490317834 
0 
0 
0 
0.07431046753125667 
0 
0.06971868200108262 
0 
0 
0 
0 
0 
0.04239381966990286 
0 
0.08653748949733178 
0 
0 
0 
-0.0008947897110811866 
0 
-0.01972780803821902 
0 
0.03108718145560764 
0 
-0.4462555304832040 
0 
0.01884025347663973 
0 
0.08172601647730811 
0 
0.008096539519088234 
0 
0.01514865474613110 
0 
0.002759559366005785 
0 
0.04314464039642989 
0 
0.04241880069342002 
0 
0 
0 
-0.01211986126940534 
0 
-0.1183698881308152 
0 
-0.003898314321690560 
0 
0 
0 
0.09611046371449103 
0 
0.1931818280958370 
0 
0.06210601825659841 
0 
0 
0 
0.07080439925317968 
0 
0 
0 
0 
0 
-0.3343171981111607 
0 
0.1451392893154771 
0 
-0.001840866248459465 
0 
0.03481117233254420 
0 
0.003567950850971439 
0 
0 
0 
0 
0 
0 
0 
0.03843058751580172 
0 
0.01951270839255921 
0 
0.07114776615168925 
0 
-0.002517960933450624 
0 
0.05552577222819630 
0 
-0.04042067210611058 
0 
0.02583937669611471 
0 
-0.001036426249477061 
0 
-0.1560862144447670 
0 
0.06179441298326632 
0 
0 
0 
0 
0 
0.08735350766819265 
0 
0 
0 
0.04339051331966300 
0 
0.1068003270103991 
0 
-0.008251697814850597 
0 
0 
0 
0 
0 
-0.05947569127369329 
0 
0 
0 
0 
0 
0 
0 
-0.1508715256721185 
0 
-0.09035708582014007 
0 
0 
0 
0.05225706302120351 
0 
0 
0 
0 
0 
0.07315516429794436 
0 
-0.1333290665384535 
0 
0 
0 
-0.02526342778546257 
0 
0.01529539313107535 
0 
0 
0 
0.02345725791323279 
0 
-0.03986991309654277 
0 
0.03424910734474600 
0 
0 
0 
0 
0 
0 
0 
0 
0 
-0.05760905480206488 
0 
0 
0 
0.08808048578078610 
0 
-0.007380086707826173 
0 
0.02449555923050627 
0 
0 
0 
0.1538720550733165 
0 
0.1153633535154775 
0 
0.04734556791247149 
0 
0 
0 
0 
0 
0.1519369325711171 
0 
-0.1201027867737249 
0 
0 
0 
-0.02022747871754133 
0 
0.08579730465845050 
0 
0 
0 
0.08805448273363342 
0 
0 
0 
-0.001562365151379612 
0 
-0.01980851201418874 
0 
0.2645060336118701 
0 
0 
0 
-0.1462735706818802 
0 
-0.06557670892355194 
0 
-0.1049982282992715 
0 
-0.09889400497569033 
0 
-0.09890086412180134 
0 
-0.03580377160098447 
0 
0 
0 
0.1036368253461604 
0 
0 
0 
-0.1067006285139532 
0 
0 
0 
0 
0 
-0.5342336357552833 
0 
-0.04207235096461923 
0 
0.5869723527464539 
0 
0 
0 
-0.2508384306087758 
0 
-0.03851072767302219 
0 
0.03967984709895780 
0 
0 
0 
0.1882073302127274 
0 
-0.09647045441940459 
0 
0 
0 
0 
0 
0 
0 
0.05407552221212471 
0 
0 
0 
0 
0 
0.08801189647600592 
0 
0 
0 
0.02011748861359711 
0 
0 
0 
0 
0 
0 
0 
0 
0 
0 
0 
0.04020305679612936 
0 
0.1679678758731107 
0 
0 
0 
0 
0 
0 
0 
-0.007130007637287167 
0 
-0.1036006699237171 
0 
0 
0 
0 
0 
0 
0 
0 
0 
0 
0 
-0.5860267051794522 
0 
-0.002006393915159625 
0 
0.1562108473054465 
0 
-0.01914046962087674 
0 
-0.09744591868636736 
0 
-0.01123779558032000 
0 
0.02696734932427602 
0 
0.02125144552168710 
0 
-0.05324333802100021 
0 
0 
0 
0 
0 
-0.02526282800484854 
0 
0 
0 
0 
0 
0 
0 
-0.2311630895103371 
0 
-0.01635196841154893 
0 
-0.1073788263193477 
0 
0 
0 
0 
0 
0 
0 
0 
0 
0 
0 
0 
0 
0.01424973071960234 
0 
0.05258187269328959 
0 
0.1024691691058520 
0 
0 
