solver_type L1R_LR
nr_class 2
label 1 2
nr_feature 969
bias 0.000000000000000
w
0.7867541941169230 
3.839314945264442 
-2.099582716957746 
0.4617959968505168 
0 
-0.3655192359201809 
0 
0.08302222172275910 
0 
-0.0003853074885946637 
0 
0.007747234952124898 
0.5283101157740699 
0.06301737507354917 
0 
0.1987617001858071 
0 
0.03450812746145841 
0 
0.07304107581622432 
0 
-0.1205688673216276 
-1.088446065089737 
0 
0 
-0.7344292861163714 
-0.1577738280379539 
0.04026772249362556 
0 
-0.2398938395891404 
-0.4321550983907233 
0.6811562485315090 
-0.06904278618607673 
-0.8750613812710096 
0.2044061329513650 
0.4844621605438761 
-0.2244573175285302 
0.9708151162965915 
0 
0 
-1.111348446213309 
0 
0.2356915063903915 
0 
0.2578108008386804 
-2.036143686831692 
0.09185083751242162 
0.2101291214039030 
0 
-0.2922366501189408 
0 
-0.9042603265720105 
0.2179245888307344 
0 
0.2574401298098516 
0 
0.2722990525138435 
0 
0 
0 
-0.02038906357637066 
0 
-0.6967873586532338 
0.3650473750643581 
0 
0 
-0.2197927014397076 
-0.1682937485109976 
-0.3509238857987769 
-0.4171210746962336 
-0.1825365908353853 
0 
0 
0 
-0.05762732554997935 
-0.3616547220179613 
-1.237312988443356 
0 
-0.4444768246072363 
0 
0 
0 
0 
-0.05207575943143893 
0 
0.3477478833713599 
0 
0.08403344980365544 
0 
0.02463923335456188 
0 
-0.3663491002868977 
0.05954178047159908 
-0.3977768216815246 
-0.9630299861197613 
0 
0 
0 
0 
0.007127116823173902 
0 
-0.02353374219426212 
0 
0.02805915891338523 
0 
0.5655429174597857 
0 
-0.3757233380149607 
-0.2438723162814829 
-0.3775662750698006 
0 
-0.3727777576442178 
0 
0.3045823265301259 
0 
0.2285690270317733 
-0.7015577617674534 
-0.7694668777786094 
0.04871112482680302 
-0.5213908045382320 
0.7663945275496940 
-0.06820562857300558 
0 
0.07545013282615212 
0 
0.1903336484950339 
0 
0.07436654041622857 
0 
0 
-0.4488703435381231 
0 
-0.3106556618381126 
-2.015499990094663 
0.1632727597286872 
0 
0.2475584137554602 
0 
0 
0 
-0.9123256813163082 
0.2576710181884744 
0 
0.2070457923848476 
0 
0 
0.1012685482596783 
0 
0.2817440419891046 
0 
0.01534209060101716 
0 
0 
0 
0 
0 
0 
0.2334609175666035 
-0.3439808619711469 
0 
0.2545526880709405 
0 
-0.7853440513825591 
0 
0 
0 
0 
0.5772557209936512 
0 
0 
-0.4651782226363977 
-0.3365367450531073 
-0.3016844586981348 
-0.4599387747705429 
-0.4663383741729580 
0 
-0.4359260320410616 
0 
0 
0 
0 
0 
-0.4609186980713396 
0 
0 
-0.03295983475618286 
-0.04564766375342347 
0 
0.1454111551298727 
0 
-1.741950667152093 
-0.4316437638815683 
0 
0 
0 
0 
-0.4613041437423290 
-0.008832127424793718 
0 
0 
-0.1620476367742991 
-0.08761378379716106 
-0.3490437063106100 
0 
0 
0.4119597282712699 
0 
-0.09023449635573877 
-2.389575909784348 
-1.942480488770145 
0 
-3.021267522531613 
0 
0 
-0.4341749824011648 
0 
-0.2206795153476973 
-0.6212357060558584 
0 
0.1054467156293448 
0 
0.1754287540181877 
0 
0 
0 
-0.2065666601448360 
0 
0 
0.3555708147404370 
0 
0 
0 
0 
-0.1517589717555467 
0.1122566544987594 
-0.4199781625427022 
0 
0.8991754276539472 
0 
0.2220724585400220 
-0.3770759726686286 
-0.05529434853503316 
0 
-0.3001550885232280 
0 
-0.2207277581733253 
-0.2737585689458957 
0 
0.5345954498674461 
0 
-0.1287762873265141 
-0.4640143656062405 
-0.09316316132183207 
0 
-0.6208373806081426 
-0.3604755358445938 
0 
-0.3446233752576063 
-0.5172341623424761 
0 
0.07903983196221503 
-0.3628470782037759 
-0.2489584884173038 
0 
0 
-0.3311711044921718 
0 
0 
-0.02058416084359797 
0.6293053371063172 
0 
-0.05792862762278906 
-0.5475357424109751 
0 
0 
0 
0.5789449406301947 
0.3905388404343849 
-0.08992068521258150 
-0.06703444219627370 
-0.9331145002397369 
0.08371823084868810 
0 
-0.02315870525071152 
0 
0.1500835584646305 
0 
-0.02946410512499810 
0 
0.08264833700527367 
0 
0 
0 
0 
0 
0.4146340992174944 
0.6500759212470306 
0 
0 
0.5352241557372579 
-0.2630179797795034 
0 
0 
0.01685486479304965 
-0.2511309057554557 
0 
0 
0 
-0.4403569616809350 
-0.4877367312941114 
0 
0 
-0.1841899568044331 
0 
-0.1413552769249815 
0 
0.2336807810276190 
0 
0 
0 
0 
0.1074857419662604 
0.1152354497705014 
0 
0 
-0.2564364594349729 
0 
0 
-0.2160667754164092 
0 
0 
-0.1341771494798821 
0.1970872654452525 
-0.7391754631695343 
-0.5924080244887568 
0.6637652054327005 
0 
-0.4399675768310031 
0.8196529762177094 
0 
-0.2551580432431464 
0.2088230467326486 
0 
0 
0 
0 
0 
0 
0 
0.3277396303624715 
-1.012930428501842 
0 
0.03691347214524351 
0 
-0.06941719166471222 
-0.07777802640259787 
0.2983018887251045 
0 
-0.03225695885678351 
0 
-0.2913420887756986 
0 
0 
0 
-0.4160142784758250 
0 
0 
-0.1016801051366856 
0 
0.08815383214001123 
0 
0.5003658469363499 
0.1461817210557933 
0 
-0.4558206675492492 
-2.146904672557842 
0 
0 
0 
-0.3086432836251875 
0 
0 
0 
-0.3175218876514216 
0 
0.02753673017732256 
0 
0.2541112068081378 
0.7814396691913917 
0 
-1.027896151877814 
0 
0 
1.163303962337374 
0 
0 
-0.2481623657937498 
0 
0 
-0.01603923057037517 
-0.3529216635250667 
0 
-0.08688732263771595 
-0.6188501998482803 
-0.2888394098175133 
0 
-0.4747797183107219 
0 
0.5101675587225362 
0 
-0.5534400732988907 
0 
-0.2114122707257862 
0 
0.3354914576177258 
0 
0.4646491005309853 
0 
0 
0.1112716390370362 
0 
0 
0 
0.1689412107727591 
-0.2121537166704937 
0 
0 
-0.6258030670273123 
0 
0 
0 
0 
0 
0 
-0.03011081035482066 
0 
0 
-1.075853355480876 
0 
0.1696670922939623 
0 
-0.01423481838217346 
0 
0.5443293456628802 
0 
0 
0.5891363317579084 
0 
0 
0 
-0.3983267209033256 
0 
0 
0 
0 
-0.9329083496916136 
0 
0.6195807402850732 
-0.5967927444613700 
0 
0.1131908118071016 
0 
0 
0 
0.1914848703293663 
0 
0 
-0.3114256654942339 
0 
0 
-0.1669233816629479 
0 
-0.1447054819268934 
0 
0 
0.2854062354870212 
-0.2098541740318690 
0 
0 
0 
0.2292321036393208 
0 
-0.1121207632645455 
-0.2215791418681984 
0 
-0.2071387673115540 
0.2997220819640071 
0 
-0.8615243992005402 
-2.315569999634108 
0 
0 
0 
0.3252048255216881 
0 
0 
0 
0 
0.2565504540526669 
0 
0 
0 
0.9456870621675179 
0 
0 
0.5940008194386036 
0 
0 
-0.5088071093282509 
0 
0 
-0.5263042604756725 
0 
0 
-0.06707316730230621 
-0.1658522630529048 
0 
0.1377765233453485 
0 
0 
-0.05178465212432735 
0 
-0.1465427287982659 
0.2468670924828959 
0 
0 
0 
0.4636954067670468 
0 
-1.778641426461739 
0 
0.2561995841687065 
0 
-0.2241609493751265 
0 
0 
0 
0 
0.9143268526097690 
0 
0.5235803366447469 
0 
0.02333957650317439 
0 
-0.1104194362185016 
0 
0.01074488686828886 
0 
0 
0 
0.2039395868149438 
0 
-0.1586736193754618 
0 
0 
0 
0.6436606379416899 
0.7901533096762612 
0.1659673858047416 
-0.1868934644592274 
0 
-0.1857894567642329 
0 
-0.2899336003371469 
0 
0 
0 
0 
-0.3202616566575955 
0 
1.279756704345325 
0 
-0.1122654779898737 
0 
0 
0 
-0.05526962789163045 
0 
1.096766429909045 
0 
0 
0 
0 
0 
0 
0 
0.6246077639601452 
0 
0 
0 
-0.3183123598872288 
0.3127030676095881 
0 
0 
0 
0.8383450137829347 
0 
0.6044264735378794 
0 
0.08869375623646009 
0 
0 
0.1873820472417893 
0 
-1.061666778267719 
0 
0 
0 
0 
0 
0 
0.6648089462869283 
0 
0 
0 
-0.1505577350078642 
0 
0.2645053760963242 
0 
0 
0 
0 
0.3993350831545566 
1.668827969842971 
0 
0 
0 
0 
0.6143094926570309 
0 
-0.4302691243591116 
0 
0 
0 
0 
0 
0 
0.3281749304877031 
0 
0 
0 
0 
0.4603355164570742 
0 
-0.4600699675936669 
0 
0 
-0.5845375490751473 
0 
0 
0.4405197715168893 
0 
0 
0.1401935443513094 
0 
-0.2444863430246309 
0 
0 
0 
0 
0 
0.3558783730806730 
0 
0 
-0.6947023033865920 
0 
0 
0.6332908474337714 
-0.8112506467662104 
0 
0 
0 
-0.2219260836022328 
0 
0 
0.9874040549233597 
0 
0 
0 
0 
0 
0 
0 
0 
0 
0.3204197908955836 
0 
0 
-0.5890099128332671 
-0.4786995396913666 
0 
0 
0 
0 
0 
0 
0 
0 
0 
0 
-0.01081638417571488 
0 
0 
0.9611854416089541 
0 
0 
0 
0 
0.5870885043968432 
0 
0 
0 
0 
0 
0 
0 
-2.233814098814836 
0 
-0.1948537824056732 
0.2187179506403411 
0 
0 
0.1158313117819358 
0 
0.07452554292578863 
0 
-0.3464425106744766 
0 
0.02607500728748479 
0 
0 
0 
0 
0 
-0.8040615199107786 
0 
-0.1328047536173826 
0 
0 
0 
0 
0.1725531866164669 
0 
0 
0 
-0.7046916605191984 
0 
-0.07130214090980641 
0 
0 
0 
0 
0 
0 
-0.1123978467185354 
0.3914729853995078 
0 
0 
0 
0 
0 
0 
0 
0 
0 
0 
0 
0 
0 
0 
0 
0 
0 
0.3019999078366031 
0 
0.2568605007919388 
0 
0 
0 
0.07943064800930419 
0 
0 
0 
0 
-0.5401886843542528 
0 
-0.3189513293150684 
0 
0.3560028686836700 
0 
0 
-0.1564441139769558 
0 
-0.4700785508267901 
0 
0 
0 
0 
0 
0 
0 
0 
0 
0 
0 
-1.837157296143092 
0 
0 
0 
0 
0 
0 
0.04498666734708910 
0 
-0.1031716955574763 
0 
-0.3720243542174010 
0 
0 
0 
-1.969286412277088 
0 
0.03813401162704613 
0 
0 
0 
0 
0 
0 
0 
0 
0 
0 
0 
0 
0 
0 
0 
0 
0 
0 
0 
0 
0 
0 
0 
0 
0 
-0.4179129258470457 
0 
-0.1170381996428918 
0 
0 
0 
0.08743099479081694 
0 
0.2970501631462224 
0 
0 
0.1837051512908379 
0 
0 
0 
0 
0 
0 
0 
0.1150507974641645 
0 
0 
0.2507082648912064 
0 
0 
0 
0 
0 
0 
0.5007317134272893 
0 
0 
0 
0 
0 
0 
-0.1790989903422416 
0 
0 
0 
0 
0 
0.7865570516328030 
0 
0 
0 
0 
-0.03243170015738469 
0 
1.202409779020431 
0 
0 
0 
0.01446346041072292 
0 
-0.02968027238286406 
0 
0 
0 
0 
0 
0 
0.5374032516559698 
0 
0 
0 
0 
0 
0 
0 
0.1242526367377101 
0 
0 
0 
0 
-0.2957910153562178 
0 
0 
0 
0 
0 
0 
0 
0 
0 
0 
0 
0 
0 
0 
0 
0 
0 
0 
0 
0 
0 
0 
0.7458324817060440 
0 
0 
0 
0 
0 
-0.7520522561007714 
0 
0 
0 
-0.1293025590728254 
0 
0.3084190472806551 
0 
0 
0 
0 
0 
0 
0 
0 
0 
0 
0 
