solver_type L1R_LR
nr_class 2
label 1 2
nr_feature 2460
bias 0.000000000000000
w
6.321693301891151 
-0.01027567632732289 
3.042323846980684 
1.015048853938908 
0 
-0.04785554850517159 
0 
0.04385802717225706 
0 
-0.007546901636307942 
0 
-0.03980289029644894 
0 
0.06293050411899019 
0 
-0.1345952971001977 
0 
0.1541969277894855 
0 
0.001313529140735099 
0.4224212713613086 
0.04523171498129675 
0 
-0.07632607036241580 
0 
0.0008562123864816638 
0 
0.01267836383072964 
0 
-0.007800109392858932 
0 
0.001298705945777815 
0 
-0.02378381644199397 
0 
-0.02861977237372752 
0 
-0.01711326737453570 
0 
0.04360919533992839 
3.164662207026169 
-0.002412565867311224 
0 
-0.002647966437609384 
0 
-7.053296637225633e-05 
0 
-0.07276711065098680 
0 
-0.6042957512131469 
0 
-0.01117131391734235 
0.1881287430002908 
0.02028029251500976 
0 
-0.01896041732543244 
0 
0.02079604977634489 
0 
0.01812261248483537 
0 
0.002137064762927970 
0 
0.005848653261202491 
0 
0.009234752422410003 
0 
0.02935494048556202 
0 
-0.07109000332249515 
0 
0 
0 
0 
0 
0.01025924378018145 
0 
0 
0 
0 
0 
0 
0 
0 
0 
-0.0008442441749229809 
0 
-0.02534966412654123 
0 
-1.814555053424194e-05 
0 
-0.0007542725669216129 
0 
-0.03213005281388182 
0 
-0.02357076987572068 
0 
-0.0002837793611466355 
0 
0 
0 
0 
0 
0 
0 
0 
0 
0 
0 
0 
0 
0 
0 
0 
0 
0 
0 
0 
0 
-0.08669509989417638 
0 
-0.01843934325017430 
0 
0 
0 
-0.06921378189012141 
0 
0 
0 
-0.01012692221570185 
0 
0 
0 
-0.01290390546148723 
0 
-0.04347279597608651 
1.241678122304313 
0.005757553902452427 
0 
0.02907424727411993 
0 
0.002448713053138938 
0.09893838001491880 
-0.005245787343486978 
1.413419534827631 
-0.05940532423638668 
0.7110552777856481 
-0.002516709434936205 
1.796422811418102 
0.009368116076595333 
0 
0.06091927515711713 
0 
-0.06272493634300708 
0 
-0.07378943821334885 
0 
0 
0 
0.1001654111576151 
0 
0.01129704144216771 
0 
0.05933209122575066 
0 
-0.05261156481236902 
0 
-0.1391212312283496 
0 
0.07888585133272875 
0 
0 
0 
0.2600641301765327 
0 
0 
0 
0.03574781032052693 
0 
0.05661425855440961 
0 
0 
0 
-0.04682806979877435 
0 
0 
0 
0.1635697077770884 
0 
0 
0 
0.01067779053251921 
0 
-0.1689888270799768 
0 
0 
0 
0.2086851668359505 
0 
0.03070706470895578 
0 
0 
0 
0 
0 
-0.07770841874708730 
0 
0 
0 
0 
0 
0 
0 
0 
0 
0.05865868220680921 
0 
0 
0 
-0.02586297595854190 
0 
0 
0 
0 
0 
0.01300338273861549 
0 
-0.01491859906461455 
0.7737520525353672 
0.01536476038911598 
0 
0 
0 
0 
0 
0 
0 
0.2126465395505424 
0 
0.03901571030362001 
0 
0 
0 
0.03393601701447042 
0 
0 
0 
0.03127103985196416 
0 
0 
0 
0 
0 
-0.2479933617118118 
0 
0 
0 
-0.07180537066580359 
0 
0.1256030967285025 
0 
-4.879477439335992e-05 
0 
0 
0 
0 
0 
0 
0 
0 
0 
0 
0 
0 
0 
-0.001806779257733738 
0 
0.02494477873631459 
0 
-0.02932875882224754 
0 
0.06439941849274759 
0 
0 
0 
0 
0 
0 
0 
0 
0 
0 
0 
0 
0 
0.1801092470343050 
0 
0 
0 
0.09081353321537859 
0 
0.02740759306224412 
0 
-0.03130100094198461 
0 
0.01057098468398791 
0 
0.01874633476030845 
0 
0 
0 
0 
0 
-0.01925506749533150 
0 
0.04604165438852508 
0 
0.0007826628930633164 
0 
-0.002848106913246237 
0 
0.0009117417018947669 
0 
0.002501577496057328 
0 
-0.03403969064287933 
0 
-0.03875651116554205 
0 
0.08362159505385133 
0 
0.07531652519687660 
0 
0.03973092370450514 
0 
-0.003138085307209428 
0 
0.005518821946551393 
0 
0.0001497628964942950 
0 
-0.0002918480043053140 
0 
0 
0 
0.007883102545100388 
0 
0.007115355396407124 
0 
0 
0 
-0.01832406135065314 
0 
-0.007357683466665608 
2.011822172078860 
0.01197795353763392 
0 
-0.2679754978427127 
0 
-0.008065568283224455 
0 
-0.06111535640060316 
0 
-0.007437865154555243 
0 
0.01968059089543765 
0 
-0.007630226867135206 
0 
0 
0 
0.1248554712824403 
0 
0.05350227356023252 
2.994611862673863 
-0.06029569586977029 
0 
-0.01798404514290278 
0 
-0.02683843207810779 
0 
0.3116667887168966 
0 
-0.07024644637887567 
0 
-0.04935342683107159 
0 
0.04300867724910318 
0 
0 
0 
0.1161845133189231 
0 
0 
0 
-0.3025884737680870 
0 
0.3054440687431935 
0 
0 
0 
-0.07077711882450570 
0 
0 
0 
0 
0 
-0.2847488718486789 
0 
-0.1332426084458651 
0 
0 
0 
0 
0 
0 
0 
-0.01455967655941193 
0 
-0.02055316460050359 
0 
0 
0 
-0.1171242973311800 
0 
0 
0 
0 
0 
0 
1.034652873472965 
0.04573651101050042 
0 
-0.2685581079314645 
0 
0 
0 
-0.09222136897084728 
0 
-0.02357812327749879 
0 
-0.006841645742517367 
0 
0 
0 
0 
0 
0.004466015325021736 
0 
0 
0 
0 
0 
0 
0 
-0.004415395103918240 
0 
0.05243101410876349 
0 
-0.01621655541766609 
0 
0.1251299861235480 
0 
-0.08667765750951845 
0 
0.3147831811723069 
0 
0 
0 
0 
0 
-0.02310988241868547 
0 
0 
0 
0 
0 
0.05151161555694493 
0 
-0.1959562083361153 
0 
-0.02976572049828134 
0 
0 
0 
0 
0 
0 
0 
0 
0 
0 
0 
0 
0 
0 
0 
0 
0 
0 
0 
-0.03995907894579160 
0 
-0.2017991710643248 
0 
0.04575660252039875 
0 
-0.1592668688218772 
0 
0 
0 
0 
0 
-0.09283769810947322 
0 
0 
0 
0.1523619121932151 
0 
0 
0 
-0.01605224704406871 
0 
0 
0 
0 
0 
-0.05261580629786544 
0 
0 
0 
0 
0 
0 
0 
0 
0 
0 
0 
0.09417725981887200 
0 
0 
0 
0.2600506545184914 
0 
0.02886534939752290 
0 
0 
0 
-0.07191466625330852 
0 
0 
0 
0 
0 
0 
0 
0 
0 
-0.3237068701624367 
0 
0 
0 
0.005330875821217544 
0 
0 
0 
0 
0 
0.005516209841506577 
0 
-0.1619170027913558 
0 
0 
0 
-0.02886525506221163 
0 
0.001644715457806617 
0 
-0.003548012600876891 
0 
0.04686527390591148 
0 
0 
0 
0.2792148561615950 
0 
0 
0 
0 
0 
-0.07301240163580881 
0 
-0.007749633865497209 
0 
-0.05455422534243623 
0 
-0.0003252785953297716 
0 
-0.01503245422649131 
0 
0.01549291723781111 
0 
0.05703919804959368 
0 
-0.1351428879145021 
0 
0.003052071477998240 
0 
0.03477546057942680 
0 
0 
0 
-0.02478628246231870 
0 
-0.06322815188075012 
0 
0.09486867291883332 
0 
0.04137583215056420 
0 
-0.4288009825415153 
0 
0.01011495823445455 
0 
-0.03997435413536133 
0 
0.01234066169830889 
0 
0 
0 
0 
0 
0 
0 
0 
0 
0.07267275537837344 
0 
0 
0 
0 
0 
0 
0 
0 
0 
0 
0 
0 
0 
0.007552567863971740 
0 
0.1226005120765729 
0 
0 
0 
0 
0 
0 
0 
0.1675091359673816 
0 
0.1992676288374687 
0 
0.2874239109930564 
0 
0.05693255316889741 
0 
-0.2193857558259789 
0 
-0.03727332526916499 
0 
0.08132327862279878 
0 
0 
0 
0 
0 
0 
0 
-0.1763448532903475 
0 
0 
0 
-0.01070187571620080 
0 
-0.1987918678430682 
0 
-0.003298963075749440 
0 
-0.002064077880627465 
0 
-0.08484195931052572 
0 
0.01082383246577266 
0 
0 
0 
0 
0 
0 
0 
0 
0 
0 
0 
0 
0 
0 
0 
0 
0 
0.03961853211038264 
0 
0 
0 
0 
0 
0 
0 
0.1824157756523676 
0 
0 
0 
0 
0 
0 
0 
0 
0 
0.06288051476500550 
0 
0.1843781758715262 
0 
-0.08476405908278438 
0 
0 
0 
-0.3330031183232798 
0 
-0.2099215620669751 
0 
0 
0 
-0.005019942882170104 
0 
0.02303556441635333 
0 
-0.02575227750890441 
0 
0.05198986915621201 
0 
0.02798193403644896 
0 
-0.0005828180388407064 
0 
0.02602632816802685 
0 
0.01061583532683076 
0 
-0.01089587155644542 
0 
-0.01830345104313994 
0 
-0.01037051991915511 
0 
-0.03523855939359948 
0 
0.1197960068924051 
0 
0.02587243767438894 
0 
0 
0 
0 
0 
0 
0 
0 
0 
0 
0 
-0.002353923367000048 
0 
0.05054495399413415 
0 
-0.02912662870516654 
0 
0 
0 
0 
0 
0.009811153252583634 
0 
0 
0 
0.05262227757222957 
0 
0.01918474560507677 
0 
-0.01255980895892616 
0 
0.01314341254389533 
0 
0.04895832478390436 
0 
0.01409444406901633 
0 
0 
0 
0.08919473041629677 
0 
0 
0 
0.04095088567263199 
0 
0 
0 
0 
0 
0 
0 
-0.02981973245295974 
0 
-0.05514379709190555 
0 
0.1536890222607625 
0 
0 
0 
0.0002516345461828855 
0 
0 
0 
0 
0.2451348362235048 
-0.06694014956740110 
0 
0.09656407775793661 
0 
0.1596890753183760 
0 
-0.3616165533683072 
0 
0 
0 
0 
0 
0 
0 
0 
0 
0 
0 
-0.001452676967551624 
0 
0.001760568310755962 
0 
0.0003096940165744067 
0 
0.0006147727127276993 
0 
0 
0 
-0.02307975360962210 
0 
0.03268897362957036 
0 
0 
0 
0.0009728465403554518 
0 
-0.002310640207888431 
0 
0.02039216955399512 
0 
0 
0 
0 
0 
0.01533274703502696 
0 
0.004068375473183925 
0 
0 
0 
0 
0 
0 
0 
0.0001019131947995277 
0 
0.001830612560051379 
0 
0 
0 
2.488112973217401e-05 
0 
0 
0 
0 
0 
0 
0 
0 
0 
0 
0 
0.02638211311351506 
0 
0 
0 
-0.07755488972898404 
0 
0 
0 
-0.2264088495018999 
0 
0 
0 
0.02211303745773788 
0 
0 
0 
0 
0 
-0.01052255126326004 
0 
0.01995185861489601 
0 
0.009144126446972807 
0 
0.01687339162919746 
0 
0.007016330042663718 
0 
0.006491834240854551 
0 
0.002100947396523198 
0 
0 
0 
0 
0 
0 
0 
-0.0002428225068590381 
0 
-0.08604755458605233 
0 
-0.1394938081499869 
0 
-0.08534324332788507 
0.01699758818683482 
0 
-0.07175119993820675 
0 
0 
0 
-0.01679940704552469 
0 
0 
0 
-0.02514284222852436 
0 
-0.009679505390071086 
0 
0 
0 
-0.01955402035792537 
0 
0 
0 
0 
0 
0 
0 
-0.1137214035866956 
0 
0 
0 
-0.2256808422284845 
0 
0 
0 
0 
0 
0 
0 
0 
0 
0.1067021854197013 
0 
0 
0 
0 
0 
0 
0 
0 
0 
0 
0 
0.01840455308328748 
0 
0 
0 
0 
0 
0 
0 
0 
0 
-0.02180116634768083 
0 
0 
0 
-0.09229218449024815 
0 
0 
0 
0 
0.5126249150764711 
0 
0 
0 
0 
0 
0 
0 
-0.04206543395339151 
0 
0 
0 
0 
0 
0 
0 
0 
0 
-0.09537609893200155 
0 
0 
0 
0.08067917301996301 
0 
0 
0 
0 
0 
0 
0 
0.02015980062002606 
0 
0.03480258198845362 
0 
0.02085929305741526 
0 
0 
0 
0 
0 
0 
0 
0 
0 
0 
0 
0 
0 
0.02959845635652333 
0 
-0.09114752506419053 
0 
-0.2374918968353693 
0 
0 
0 
0 
0 
-0.0005971866305418015 
0 
0 
0 
0 
0 
0 
0 
0 
0 
0 
0 
0 
0 
0 
0 
0 
0 
0 
0 
0 
0 
0 
0 
0 
0 
0 
0 
0 
0 
0 
0 
0 
0 
0 
0 
0 
0 
-0.04425794088961133 
0 
0 
0 
0 
0 
-0.06358743367961876 
0 
0 
0 
0 
0 
0 
0 
0.09147963607791024 
0 
0 
0 
0 
0 
0 
0 
0.06168799381987818 
0 
0 
0 
0 
0 
-0.08418262017556863 
0 
-0.01729011637375847 
0 
0 
0 
0 
0.01745174089994440 
0 
0 
0 
0.005316977170306360 
0 
0 
0 
0 
0 
0 
0 
-0.01141709557330269 
0 
0.0002680515093060861 
0 
-0.01615991011401460 
0 
0.01027610855886054 
0 
0 
0 
0 
0 
-0.01323778929325270 
0 
0 
0 
0.001395764138974161 
0 
0.002823503790873864 
0 
0.02520204211318569 
0 
0 
0 
-0.01235822469043743 
0 
0 
0 
0 
0 
0 
0 
0 
0 
0 
0 
0.006217006586448315 
0 
0 
0 
0.02573292684413855 
0 
0 
0 
0.004125114478711026 
0 
0.03079952496507753 
0 
-0.003958444637006034 
0 
-6.488991579756197e-06 
0 
0.02375033940554622 
0 
0.1143997098272118 
0 
-0.008201727251310426 
0 
0.001416685076184814 
0 
0 
0 
0.02029464665187311 
0 
0 
0 
-0.02120819208720032 
0 
-0.01199124870487969 
0 
0 
0 
0 
0 
0 
0 
0 
0 
0 
0 
-0.01238248015557742 
0 
-0.05698026635384403 
0 
-0.07837347126267530 
0 
0 
0 
-0.01710194234395773 
0 
-0.04515340396243670 
0 
-0.07767947282579150 
0 
0 
0 
0 
0 
0 
0 
-0.05292613780355134 
0 
0 
0 
0.02727441520399276 
0 
0.01608586296050828 
0 
0.008675339760046457 
0 
-0.01897525082108509 
0 
0 
0.01802843861211021 
0 
0.005564134193706665 
0 
-0.2549932182369171 
0 
0 
0 
0 
-0.07185026067904662 
0 
0 
0 
0.02254999496712408 
0 
0 
0 
0 
0 
-0.08458926377683455 
0 
0.04444297165519152 
0 
0.03769739716892675 
0 
0 
0 
-0.01429597243239072 
0 
0 
0 
-0.1706766502859647 
0 
0 
0 
0 
0 
0 
0 
0.05946623726051471 
0 
0.02779402065087775 
0 
0 
0 
0 
0 
0.003083264708073524 
0 
0 
0 
0 
0 
0 
0 
0 
0 
0 
0 
0.02066982456882062 
0 
-0.003498835610881414 
0 
0 
0 
0 
0 
0 
0 
0 
0 
0 
0 
0.02508703292073985 
0 
-0.008060398217897807 
0 
-0.1401781161884474 
0 
-0.02725605561418428 
0 
-0.005943889111572265 
0 
-0.04095919129638438 
0 
-0.08074470258095981 
0 
0 
0 
0 
0 
0 
0 
-0.04808489425032510 
0 
0 
0 
0 
0 
0 
0 
0 
0 
-0.06562026052846619 
0 
0 
0 
-0.002992519362555709 
0 
-0.4659167191917826 
0 
-0.02806596360712547 
0 
-0.3243441089482183 
0 
-0.1447781095992992 
0 
-0.03230610563134010 
0 
0.05171294411276436 
0 
0.08809918403442454 
0 
0 
0 
0 
0 
-0.02919938817723929 
0 
0 
0 
-0.09479852514854986 
0 
0 
0 
0 
0 
0 
0 
0 
0 
0 
0 
-0.04892721543058387 
0 
0 
0 
0 
0 
0 
0 
-0.04000834080523506 
0 
0 
0 
0 
0 
-0.05695217140903507 
0 
0 
0 
0 
0 
0 
0 
0 
0 
0 
0 
0 
0 
0 
0 
0 
0 
0 
0 
0 
0 
-0.2091194739395663 
0 
0.2540061642292399 
0 
0 
0 
0 
0 
-0.2628757292075873 
0 
0.1967627259309341 
0 
0.06289720842183365 
0 
0 
0 
0.04542011829096215 
0 
0 
0 
0 
0 
0 
0 
0.09423935524911173 
0 
0 
0 
0 
0 
0.03397460012469754 
0 
0 
0 
-0.04160456501299523 
0 
0 
0 
0 
0 
0 
0 
0 
0 
0 
0 
0 
0 
0 
0 
0 
0 
-0.003868251063000195 
0 
0 
0 
-0.1095689678610701 
0 
0 
0 
0 
0 
0 
0 
0 
0 
0 
0 
0 
0 
0 
0 
0.03548650642173156 
0 
-0.05632232460518833 
0 
0.09411435680666742 
0 
0.06587566911131842 
0 
0.01710497547009316 
0 
0.01653591813113759 
0 
0 
0 
0.009433826034408200 
0 
0.009808388353851507 
0 
0 
0 
0.05212027432974921 
0 
7.353466441265032e-05 
0 
0.006402905230922830 
0 
0.002245788025645248 
0 
0.03117014074964050 
0 
0.1344598764430846 
0 
-0.06638544671858018 
0 
-0.05005951697333185 
0 
0 
0 
0 
0 
-0.2142867796861241 
0 
0 
0 
0 
0 
-0.02841012388397299 
0 
-0.009594594121513287 
0 
-0.03815823316132890 
0 
0 
0 
0 
0 
0 
0 
0.01629773485511393 
0 
0.01350807798627258 
0 
1.859925031093461e-06 
0 
0 
0 
0.01129226574334000 
0 
-0.05211637927183319 
0 
0 
0 
0 
0 
0 
0 
-0.04725911609318434 
0 
-0.08084610209425583 
0 
0.01296929350791081 
0 
-0.01279678785244461 
0 
0.01363942732621679 
0 
-0.009932306617771919 
0 
-0.09537996362453442 
0 
0 
0 
0 
0 
0 
0 
0 
0 
0 
0 
0 
0 
0 
0 
0 
0 
0 
0 
0 
0 
-0.01836985802409629 
0 
0 
0 
0 
0 
0 
0 
0 
0 
0 
0 
0 
0 
-0.04279705488370517 
0 
0.3181543256458747 
0 
0.1952432056732040 
0 
-0.1059919461753986 
0 
-0.02504829311065617 
0 
0 
0 
0 
0 
0 
0 
0 
0 
-0.06594142894005073 
0 
-0.01306510748888818 
0 
-0.1057290321258806 
0 
0 
0 
0 
0 
0 
0 
0 
0 
0 
0 
0 
0 
0 
0 
0 
0 
0.06023851892124548 
0 
0.04415746956373670 
0 
0 
0 
0.07153440508408646 
0 
0 
0 
0 
0 
0 
0 
0 
0 
0 
0 
0 
0 
0 
0 
0 
0 
0 
0 
0 
0 
-0.02213299439288875 
0 
0 
0 
-0.03984662361570843 
0 
0 
0 
-0.07673186801035972 
0 
0 
0 
0 
0 
-0.2474599878615744 
0 
-0.01720019407933723 
0 
-0.02894583401020690 
0 
-0.05548217232305782 
0 
-0.02532736034519888 
0 
-0.3654642934449832 
0 
0 
0 
0.04510555808504060 
0 
0 
0 
0 
0 
0 
0 
0 
0 
0 
0 
0 
0 
0 
0 
0.03814514816499762 
0 
0 
0 
-5.324075724622780e-06 
0 
-2.595721180748873e-06 
0 
-0.01806572789330277 
0 
-0.01955475543098524 
0 
-0.04547361321259269 
0 
0 
0 
0 
0 
0 
0 
0 
0 
0 
0 
0 
0 
0 
0 
0 
0 
0 
0 
0 
0 
-0.06962391715929699 
0 
-0.2268597332912999 
0 
0 
0 
0 
0 
0 
0 
0.003778141925403836 
0 
0 
0 
0.05792470027488617 
0 
0.02843289769795245 
0 
0.04771933338501743 
0 
0.1092777166254772 
0 
0 
0 
0 
0 
-0.03395784985748247 
0 
0 
0 
0 
0 
0 
0 
-0.1485055183108862 
0 
-0.07241421421877178 
0 
0 
0 
0 
0 
0 
0 
0.07683072128673855 
0 
0 
0 
0.03080290731669217 
0 
-0.01321079849871296 
0 
0 
0 
0 
0 
0 
0 
0 
0 
0 
0 
0 
0 
0 
0 
0 
0 
0 
0 
0 
0 
0 
0 
0 
0 
0 
0 
0 
0 
-0.002704010366779437 
0 
-0.07030778230089488 
0 
-0.06527505386258364 
0 
0.04118426925959628 
0 
0.03660309272933804 
0 
0.1362966538406439 
0 
0.1280760047219386 
0 
-0.1136236986955013 
0 
-0.1234754513785152 
0 
0 
0 
0 
0 
-0.2961432003667457 
0 
-0.09160338782825504 
0 
0 
0 
0 
0 
0 
0 
0 
0 
0 
0 
0 
0 
0 
0 
0 
0 
0 
0 
0 
0 
-0.1510109017050224 
0 
-0.08857454827255185 
0 
0 
0 
0 
0 
0 
0 
0 
0 
0 
0 
0 
0 
0 
0 
-0.1851525983579187 
0 
0 
0 
0 
0 
0 
0 
0 
0 
-0.04673475161516649 
0 
0 
0 
-0.03640668987303047 
0 
-0.0001568996502134970 
0 
-0.007333213328793261 
0 
0 
0 
-8.253361858158564e-05 
0 
-0.06264038422663494 
0 
-0.07430070466409164 
0 
0 
0 
0 
0 
0 
0 
0 
0 
0 
0 
0.08041080425237118 
0 
0 
0 
0 
0 
0 
0 
0 
0 
-0.007217709242298525 
0 
-0.003356410797845686 
0 
-0.2370518137316553 
0 
-0.04260028332544887 
0 
0 
0 
-0.04684710925027490 
0 
-0.1073057820186759 
0 
0 
0 
0 
0 
-0.02094503062623626 
0 
0.01962394980381449 
0 
-0.003992798295517571 
0 
0.03094002062651164 
0 
0 
0 
0 
0 
0 
0 
0 
0 
0 
0 
0 
0 
0 
0 
0 
0 
0 
0 
-0.1431050014647648 
0 
0 
0 
0 
0 
0 
0 
0.1202889492448595 
0 
0 
0 
0 
0 
0 
0 
0 
0 
0 
0 
0 
0 
0 
0 
0 
0 
0 
0 
0 
0 
0 
0 
0 
0 
0 
0 
0 
0 
0 
0 
0 
0 
0 
0 
0 
0 
0 
0 
0 
0 
0 
0 
0 
0 
0 
0 
0 
0 
0 
0 
0 
0 
0 
0 
0 
0 
0 
0 
0 
0 
0 
0 
0 
0 
0 
0 
0 
0 
0 
0 
0 
0 
0 
0 
0 
0 
0 
0 
0 
0 
0 
0 
0 
0 
0 
0 
0 
0 
0 
0 
0.1268584602307212 
0 
0 
0 
-0.03982200570072825 
0 
-0.07726763267098359 
0 
0 
0 
-0.003043061112588094 
0 
-0.09862114531451990 
0 
-0.03796431044090494 
0 
-0.01874367998391081 
0 
-0.04649170547269729 
0 
-0.07137646992060585 
0 
0.05026410672133683 
0 
0 
0 
0.1184802782189501 
0 
0.1234106475770334 
0 
0 
0 
0 
0 
0 
0 
0 
0 
0.01846008007885506 
0 
0 
0 
0 
0 
0 
0 
0 
0 
0 
0 
0 
0 
0 
0 
0 
0 
-0.1107912435219849 
0 
-0.1281897112815387 
0 
-0.003377972409528400 
0 
0.01504467483146197 
0 
0.02840605005728085 
0 
0 
0 
0 
0 
0 
0 
0 
0 
0 
0 
0 
0 
0 
0 
0 
0 
0 
0 
0 
0 
0 
0 
0 
0 
0 
0 
0 
0 
0 
0 
0 
0 
-0.1117711967268044 
0 
0 
0 
0 
0 
0 
0 
0 
0 
0 
0 
0 
0 
0.02957066919443010 
0 
0 
0 
0 
0 
0 
0 
0.1393578438042434 
0 
0 
0 
0 
0 
0 
0 
0 
0 
0 
0 
0.1271413486468807 
0 
0 
0 
0 
0 
0 
0 
0 
0 
-0.04508226646979672 
0 
-0.09761953967302843 
0 
0 
0 
0 
0 
0 
0 
0 
0 
0.1177817779335396 
0 
0.1177785362132453 
0 
0 
0 
0 
0 
0 
0 
0 
0 
0 
0 
0 
0 
0 
0 
0 
0 
0 
0 
0 
0 
0 
0 
0.02805754114950249 
0 
0 
0 
0.02320673739144777 
0 
0 
0 
0 
0 
0 
0 
0 
0 
0 
0 
0 
0 
0 
0 
-0.4056153984209910 
0 
0.09468156855876865 
0 
0 
0 
0 
0 
0.1420630115905144 
0 
0 
0 
0 
0 
0.008233517240056684 
0 
0.002890942950549897 
0 
0.02776160346842856 
0 
0.03487608905082513 
0 
0 
0 
0 
0 
0 
0 
0 
0 
-0.1181234593257750 
0 
0 
0 
-0.08615451436956060 
0 
0 
0 
0 
0 
0 
0 
0 
0 
0 
0 
0 
0 
0 
0 
0 
0 
0 
0 
0 
0 
0 
0 
0 
0 
0 
0 
-0.01277146983198297 
0 
0 
0 
-0.06445383997001211 
0 
0.03799784289852714 
0 
0 
0 
0 
0 
0 
0 
0 
0 
0 
0 
0 
0 
0.006930559992546449 
0 
0 
0 
0 
0 
0 
0 
0 
0 
0 
0 
0 
0 
0 
0 
0 
0 
0 
0 
0 
0 
0 
0 
-0.1322040776605950 
0 
-0.1393960121392839 
0 
0 
0 
0 
0 
0 
0 
0 
0 
0 
0 
-0.08172380319677817 
0 
0 
0 
-0.1982557885605080 
